digraph Tree {
node [shape=box, style="filled, rounded", color="black", fontname=helvetica] ;
edge [fontname=helvetica] ;
0 [label="min_gen <= 5944.5\nmse = 870.5\nsamples = 650\nvalue = 165.1", fillcolor="#f5ccb0"] ;
1 [label="min_gen <= 4572.7\nmse = 279.2\nsamples = 393\nvalue = 146.5", fillcolor="#f9e1d1"] ;
0 -> 1 [labeldistance=2.5, labelangle=45, headlabel="True"] ;
2 [label="day_peak_gen <= 5376.0\nmse = 131.4\nsamples = 137\nvalue = 129.0", fillcolor="#fdf5f0"] ;
1 -> 2 ;
3 [label="mse = 57.4\nsamples = 67\nvalue = 120.3", fillcolor="#ffffff"] ;
2 -> 3 ;
4 [label="mse = 51.3\nsamples = 70\nvalue = 137.8", fillcolor="#fbebe0"] ;
2 -> 4 ;
5 [label="day_peak_gen <= 6693.0\nmse = 103.2\nsamples = 256\nvalue = 156.0", fillcolor="#f7d7c0"] ;
1 -> 5 ;
6 [label="mse = 63.0\nsamples = 184\nvalue = 151.6", fillcolor="#f8dcc7"] ;
5 -> 6 ;
7 [label="mse = 47.7\nsamples = 72\nvalue = 166.2", fillcolor="#f4cbae"] ;
5 -> 7 ;
8 [label="min_gen <= 7311.1\nmse = 395.4\nsamples = 257\nvalue = 194.5", fillcolor="#eeab7b"] ;
0 -> 8 [labeldistance=2.5, labelangle=-45, headlabel="False"] ;
9 [label="max_demand_gen <= 8795.0\nmse = 120.2\nsamples = 190\nvalue = 185.0", fillcolor="#f0b68c"] ;
8 -> 9 ;
10 [label="mse = 43.6\nsamples = 75\nvalue = 175.4", fillcolor="#f2c19d"] ;
9 -> 10 ;
11 [label="mse = 69.0\nsamples = 115\nvalue = 191.4", fillcolor="#eeaf81"] ;
9 -> 11 ;
12 [label="eve_peak_gen <= 10717.0\nmse = 180.1\nsamples = 67\nvalue = 222.0", fillcolor="#e78c4a"] ;
8 -> 12 ;
13 [label="mse = 75.3\nsamples = 34\nvalue = 212.9", fillcolor="#e9965b"] ;
12 -> 13 ;
14 [label="mse = 107.0\nsamples = 33\nvalue = 231.9", fillcolor="#e58139"] ;
12 -> 14 ;
}